digraph Tree {
node [shape=box, fontname="helvetica"] ;
edge [fontname="helvetica"] ;
0 [label="x[3] <= 0.5\ngini = 0.643\nsamples = 1177\nvalue = [520, 263, 394]"] ;
1 [label="gini = 0.05\nsamples = 78\nvalue = [76, 0, 2]"] ;
0 -> 1 [labeldistance=2.5, labelangle=45, headlabel="True"] ;
2 [label="x[1] <= 3.5\ngini = 0.652\nsamples = 1099\nvalue = [444, 263, 392]"] ;
0 -> 2 [labeldistance=2.5, labelangle=-45, headlabel="False"] ;
3 [label="x[0] <= 37.5\ngini = 0.606\nsamples = 672\nvalue = [328, 97, 247]"] ;
2 -> 3 ;
4 [label="x[3] <= 2.5\ngini = 0.608\nsamples = 481\nvalue = [196, 66, 219]"] ;
3 -> 4 ;
5 [label="x[0] <= 27.5\ngini = 0.58\nsamples = 211\nvalue = [114, 26, 71]"] ;
4 -> 5 ;
6 [label="x[2] <= 1.5\ngini = 0.582\nsamples = 151\nvalue = [73, 15, 63]"] ;
5 -> 6 ;
7 [label="gini = 0.0\nsamples = 2\nvalue = [0, 2, 0]"] ;
6 -> 7 ;
8 [label="gini = 0.574\nsamples = 149\nvalue = [73, 13, 63]"] ;
6 -> 8 ;
9 [label="gini = 0.482\nsamples = 60\nvalue = [41, 11, 8]"] ;
5 -> 9 ;
10 [label="x[7] <= 2.5\ngini = 0.585\nsamples = 270\nvalue = [82, 40, 148]"] ;
4 -> 10 ;
11 [label="gini = 0.575\nsamples = 90\nvalue = [38, 8, 44]"] ;
10 -> 11 ;
12 [label="x[6] <= 2.5\ngini = 0.575\nsamples = 180\nvalue = [44, 32, 104]"] ;
10 -> 12 ;
13 [label="gini = 0.633\nsamples = 85\nvalue = [27, 18, 40]"] ;
12 -> 13 ;
14 [label="gini = 0.492\nsamples = 95\nvalue = [17, 14, 64]"] ;
12 -> 14 ;
15 [label="x[2] <= 2.5\ngini = 0.475\nsamples = 191\nvalue = [132, 31, 28]"] ;
3 -> 15 ;
16 [label="gini = 0.207\nsamples = 62\nvalue = [55, 4, 3]"] ;
15 -> 16 ;
17 [label="gini = 0.562\nsamples = 129\nvalue = [77, 27, 25]"] ;
15 -> 17 ;
18 [label="x[3] <= 2.5\ngini = 0.66\nsamples = 427\nvalue = [116, 166, 145]"] ;
2 -> 18 ;
19 [label="x[0] <= 32.5\ngini = 0.659\nsamples = 184\nvalue = [68, 48, 68]"] ;
18 -> 19 ;
20 [label="gini = 0.657\nsamples = 135\nvalue = [37, 43, 55]"] ;
19 -> 20 ;
21 [label="gini = 0.519\nsamples = 49\nvalue = [31, 5, 13]"] ;
19 -> 21 ;
22 [label="x[0] <= 32.5\ngini = 0.625\nsamples = 243\nvalue = [48, 118, 77]"] ;
18 -> 22 ;
23 [label="gini = 0.635\nsamples = 57\nvalue = [13, 17, 27]"] ;
22 -> 23 ;
24 [label="x[0] <= 42.5\ngini = 0.597\nsamples = 186\nvalue = [35, 101, 50]"] ;
22 -> 24 ;
25 [label="gini = 0.543\nsamples = 130\nvalue = [14, 78, 38]"] ;
24 -> 25 ;
26 [label="gini = 0.645\nsamples = 56\nvalue = [21, 23, 12]"] ;
24 -> 26 ;
}